1.258895,
1.623168,
-1.492053,
1.653503,
0.529437,
-1.609838,
-0.886007,
0.187526,
1.830027,
1.859554,
-1.369548,
1.882371,
1.828668,
-0.058497,
1.201122,
-1.432455,
-0.312955,
1.662942,
1.168829,
1.837970,
0.622963,
-1.857153,
1.396517,
1.735973,
0.714941,
1.030961,
0.972530,
-0.431092,
0.621912,
-1.315253,
0.824184,
-1.872669,
-0.892308,
-1.815314,
-1.611473,
1.293831,
0.779314,
-0.731602,
1.800888,
-1.862216,
-0.245023,
-0.473766,
1.062067,
1.180800,
-1.252510,
-0.040942,
-0.217655,
0.585252,
0.837459,
1.018747,
-0.895900,
0.718811,
0.620392,
-1.349553,
-1.524009,
-0.006544,
1.838976,
-0.638457,
0.341071,
-1.104752,
1.005068,
-0.979620,
0.023828,
0.796307,
1.563613,
1.837166,
0.188862,
-1.445502,
-1.402824,
-0.969967,
1.362869,
-0.982871,
1.257139,
-1.025900,
1.717054,
-0.600065,
-1.213619,
-0.995665,
0.464179,
-0.106845,
-0.593362,
1.323315,
0.341056,
0.198894,
1.668775,
-0.856644,
1.028801,
1.014916,
-0.478217,
0.271287,
-1.696583,
-1.784200,
0.123190,
1.116669,
1.736043,
-1.480375,
0.275295,
-0.122437,
-1.952392,
-0.651509,
-1.351271,
1.177138,
-0.755140,
0.114133,
-1.337405,
0.407928,
-0.948115,
0.616316,
0.756858,
0.992606,
-0.197834,
-1.664714,
-1.084092,
1.653349,
-1.390488,
1.303268,
0.153370,
1.984539,
-1.687298,
-0.229287,
-1.573389,
1.847592,
-1.981463,
1.099642,
1.269213,
1.474779,
-1.662257,
-0.400869,
-0.960518,
1.200274,
-0.274345,
1.642590,
-1.272612,
-0.944788,
-1.417844,
-1.455726,
1.477169,
0.318818,
0.199441,
-1.420181,
1.412124,
0.488221,
-0.596190,
0.052998,
-0.392768,
-1.696133,
-1.040335,
-1.506724,
-1.264369,
-1.040190,
-0.330932,
-1.801382,
1.610864,
1.779149,
-0.036544,
-0.042989,
-0.649122,
1.600215,
-0.523013,
-1.555189,
1.121008,
-0.441045,
-1.033235,
-0.384351,
-1.614182,
-1.472107,
1.768202,
1.824538,
0.300834,
-1.760882,
-1.060880,
-0.587366,
1.284776,
-1.938386,
-1.827905,
-1.324040,
0.596462,
0.926890,
0.590984,
-0.196305,
0.188036,
-0.814717,
0.978771,
-1.244180,
0.747102,
-1.265955,
-0.526062,
0.502474,
1.120910,
-1.675497,
1.717544,
1.102851,
-0.052833,
-0.256566,
-0.212865,
-0.774602,
0.034035,
0.043086,
1.270511,
1.179326,
0.577273,
-0.485562,
1.246322,
0.131302,
-0.597092,
1.756006,
1.503771,
0.200625,
0.489900,
0.348179,
-1.169031,
-0.795015,
-0.116307,
-1.078047,
1.377235,
-1.220943,
-1.096313,
-1.317168,
-1.089343,
-0.257205,
-0.755591,
1.693519,
-0.279170,
-1.260735,
1.619524,
1.918994,
-0.244520,
-1.555523,
-0.967741,
-0.365121,
0.379584,
-0.951153,
0.411372,
0.844863,
-1.113013,
-1.530329,
-0.813297,
-0.724887,
-0.303333,
0.031433,
-1.657937,
-0.950071,
1.204058,
-1.883119,
1.715417,
0.921323,
-0.045564,
0.314100,
-1.050866,
-0.164605,
1.852354,
0.187223,
0.084543,
-1.073622,
-0.044409,
0.496240,
0.716542,
-0.417939,
-0.530253,
1.951928,
-1.849045,
1.540672,
1.653147,
1.184735,
-1.605151,
-0.952515,
-0.658573,
0.718912,
-1.453787,
0.884910,
-1.572953,
0.615029,
-0.023304,
1.116207,
0.860148,
1.614882,
1.563690,
-0.663348,
0.794983,
-1.208761,
-1.877836,
0.976297,
0.000090,
-0.080311,
1.618889,
0.439467,
0.470666,
1.437769,
1.221958,
0.306886,
-1.268310,
-1.040272,
1.546048,
-1.885303,
-0.040394,
-1.328291,
1.914723,
0.850778,
0.001886,
-0.115647,
-1.761525,
0.727888,
-1.830275,
-1.714218,
0.086599,
-1.613080,
1.272594,
1.270188,
0.889758,
-1.400538,
0.638421,
0.074380,
1.891898,
0.595966,
1.201322,
-0.184809,
-0.270434,
1.301255,
-1.666121,
-1.467316,
-1.306446,
-0.436249,
1.325519,
1.213458,
-1.758115,
-0.402969,
0.107503,
-0.332802,
0.627440,
0.511893,
-0.832064,
-0.273395,
-1.938051,
1.936255,
-1.331326,
-1.575135,
-0.510361,
-1.207526,
-0.041249,
-0.642026,
1.806522,
1.681328,
-1.789292,
0.951432,
-0.923522,
-0.308658,
0.191484,
1.770948,
-0.329024,
1.932210,
-0.794180,
0.804395,
0.665355,
0.156506,
0.792422,
0.666112,
-1.287470,
-1.487942,
1.996322,
-1.315516,
-1.869597,
0.244799,
1.527466,
0.676701,
-1.238267,
-0.524334,
-0.157096,
1.926552,
-1.374380,
1.422091,
0.579058,
-0.494911,
-1.236305,
-0.286988,
-0.071912,
-1.517554,
0.358030,
-1.095249,
-0.461524,
0.331946,
-0.992776,
-0.838237,
0.468364,
-0.938876,
1.297505,
1.930654,
0.920995,
-0.624492,
0.336277,
-1.568924,
1.625233,
1.518615,
1.271042,
-0.957088,
0.377425,
-1.909950,
-0.298963,
-0.749124,
-1.354061,
-1.284935,
-0.308457,
-1.623083,
0.394095,
-0.116303,
0.783797,
0.799551,
0.554123,
-1.865585,
-1.724776,
-0.721601,
0.123457,
0.617783,
-0.369523,
1.279925,
0.873436,
1.874597,
0.125336,
-0.699417,
-1.577483,
0.443835,
1.115209,
-0.306188,
-1.636707,
-0.934114,
-1.385373,
-0.875979,
-0.239659,
0.108571,
-0.170303,
1.501486,
0.072208,
1.774490,
0.550836,
1.830776,
-1.037172,
0.704489,
-0.843742,
0.687233,
0.780562,
-1.728029,
-0.980839,
-1.103840,
0.671331,
1.377569,
-0.622150,
1.122079,
0.701328,
-1.973139,
0.408682,
-0.452915,
1.663965,
-1.995396,
-0.150203,
-0.302604,
-0.156335,
1.080639,
-0.710113,
1.138957,
-0.114571,
-1.856949,
-1.296502,
0.887032,
-0.106056,
-1.389115,
-0.635502,
0.429557,
-1.233019,
0.953707,
-1.028602,
1.669697,
-0.923754,
1.062000,
-1.245352,
-0.850007,
-1.635546,
0.304838,
0.733453,
0.186372,
-0.297085,
0.577771,
0.590471,
0.716067,
0.543147,
1.780696,
-1.164260,
0.837127,
-1.055078,
-1.522415,
0.429216,
-0.199449,
-0.165098,
0.647779,
1.081142,
-0.599128,
0.648038,
-0.335366,
1.367717,
1.331667,
-0.974236,
0.453843,
0.328997,
0.162957,
1.479764,
-0.940884,
-0.727704,
-1.523142,
1.759318,
0.582207,
-0.082147,
0.557268,
0.178864,
0.589246,
0.175544,
0.884186,
0.089981,
1.974818,
-1.125293,
-1.576807,
-1.561210,
-1.745635,
-0.381680,
-0.206508,
-0.536735,
1.054019,
0.511586,
1.087922,
1.731414,
1.890963,
-1.231887,
-1.444503,
0.785065,
-1.624720,
0.101618,
0.121377,
1.444559,
-0.060587,
-0.426175,
0.685725,
0.965032,
0.080210,
-0.609149,
-1.400011,
0.344368,
-0.951419,
-1.822184,
1.019733,
-1.028859,
-0.230391,
0.751184,
-0.563087,
0.945360,
-0.421170,
0.733663,
0.816190,
-0.230778,
-1.921690,
-0.676568,
-0.302762,
-0.918918,
-1.211785,
1.286885,
-0.280314,
1.551084,
-0.435268,
1.076458,
-0.412834,
1.234056,
1.020308,
-0.490418,
-1.135924,
1.161629,
1.797216,
-0.689738,
0.685057,
-0.245420,
1.334002,
1.075417,
-1.330986,
1.447922,
1.959489,
0.057694,
1.537124,
0.352104,
-1.380991,
-1.200549,
-0.372181,
0.994823,
1.302335,
1.159852,
-0.725903,
0.136257,
-1.640197,
-1.553177,
-1.454830,
0.714609,
-0.019292,
-1.241158,
-0.019977,
-1.409567,
-1.780103,
1.402851,
0.242238,
1.718435,
0.786669,
0.331164,
1.261589,
1.516056,
1.955646,
-1.997910,
1.461754,
0.450266,
1.959801,
0.110720,
-0.081906,
1.205390,
-1.088628,
-0.007623,
1.603410,
0.298645,
1.380713,
0.954561,
0.343948,
-1.013062,
0.665665,
-1.666069,
0.503839,
0.643778,
0.919007,
1.563008,
1.929213,
1.076116,
0.325786,
1.713252,
0.320361,
-1.932068,
-1.516562,
1.450843,
-0.062814,
1.379423,
-1.162380,
0.209165,
0.519534,
-1.872036,
0.458854,
-0.550354,
-1.801870,
-0.041720,
-1.229958,
-1.507665,
-1.178023,
-1.413940,
-1.243711,
-1.829390,
0.540792,
-0.872533,
0.154387,
0.780652,
-0.003536,
0.143204,
-0.219267,
-1.504271,
-0.038571,
1.411993,
1.495710,
-0.918823,
-1.166155,
0.259918,
0.561247,
-0.331884,
-1.176098,
1.791732,
-1.671715,
-1.577162,
-1.431836,
-1.334158,
0.483835,
0.294839,
-1.791688,
1.724806,
0.914647,
0.951367,
-1.746382,
1.441762,
1.737620,
1.937593,
1.435755,
1.142236,
0.053510,
-1.289590,
-0.405642,
-1.464275,
-1.876442,
1.756567,
-0.794776,
-0.817865,
-0.668255,
-0.131727,
0.592794,
-1.899087,
1.368826,
0.236130,
1.416400,
-0.608483,
-0.215893,
-1.783042,
-1.291570,
0.651232,
-0.676684,
1.593945,
-1.527379,
1.953672,
0.159928,
0.827670,
1.997966,
-0.848603,
-0.341910,
-0.140640,
1.055828,
1.272816,
-1.599114,
-1.287532,
-0.561460,
-1.773181,
0.087543,
-0.656604,
-1.297324,
-1.164213,
1.620614,
0.701565,
-0.126127,
1.648530,
-1.583954,
0.982184,
0.945070,
0.247446,
-1.263224,
0.388845,
-0.800252,
-1.463508,
-1.149594,
1.579767,
-1.714189,
-1.030054,
-1.784982,
-0.233112,
-1.946867,
1.588765,
-1.213367,
-1.626518,
-0.770532,
-0.175769,
-1.593322,
1.981559,
-0.671629,
-0.810613,
-1.751819,
-0.807024,
-1.814595,
0.021713,
1.045704,
0.524280,
-1.640433,
-1.676550,
1.108962,
1.620539,
0.135088,
-1.563383,
1.303235,
-0.647609,
-0.824108,
0.985254,
-1.958654,
-1.806211,
0.671664,
0.413872,
0.104410,
0.918838,
0.829014,
1.125508,
-0.848092,
0.770128,
0.226679,
-0.413917,
-1.753637
